digraph Tree {
node [shape=box, fontname="helvetica"] ;
edge [fontname="helvetica"] ;
0 [label=<Eicosane, 3-methyl- &le; 26096754.0<br/>gini = 0.849<br/>samples = 21<br/>value = [140, 112, 84, 140, 140, 84, 84]<br/>class = Eley Hymax>] ;
1 [label=<Benzene, chloro- &le; 6061305.5<br/>gini = 0.824<br/>samples = 18<br/>value = [115, 92, 69, 115, 0, 69, 69]<br/>class = Eley Hymax>] ;
0 -> 1 [labeldistance=2.5, labelangle=45, headlabel="True"] ;
2 [label=<Phenol, 4-ethyl- &le; 30355012.0<br/>gini = 0.79<br/>samples = 14<br/>value = [0, 72, 54, 90, 0, 54, 54]<br/>class = Holland &amp; Holland Super Twelve>] ;
1 -> 2 ;
3 [label=<Pentadecane &le; 528349680.0<br/>gini = 0.746<br/>samples = 11<br/>value = [0, 52, 39, 0, 0, 39, 39]<br/>class = Eley Super Game>] ;
2 -> 3 ;
4 [label=<Ethyl Centralite &le; 140294272.0<br/>gini = 0.667<br/>samples = 8<br/>value = [0, 0, 27, 0, 0, 27, 27]<br/>class = Gamebore Clear Pigeon>] ;
3 -> 4 ;
5 [label=<gini = 0.0<br/>samples = 3<br/>value = [0, 0, 9, 0, 0, 0, 0]<br/>class = Gamebore Clear Pigeon>] ;
4 -> 5 ;
6 [label=<1-Tridecanol &le; 38476996.0<br/>gini = 0.5<br/>samples = 5<br/>value = [0, 0, 0, 0, 0, 18, 18]<br/>class = Ward Thompson Classic>] ;
4 -> 6 ;
7 [label=<gini = 0.0<br/>samples = 3<br/>value = [0, 0, 0, 0, 0, 9, 0]<br/>class = Ward Thompson Classic>] ;
6 -> 7 ;
8 [label=<gini = 0.0<br/>samples = 2<br/>value = [0, 0, 0, 0, 0, 0, 9]<br/>class = Western Double A>] ;
6 -> 8 ;
9 [label=<gini = 0.0<br/>samples = 3<br/>value = [0, 16, 0, 0, 0, 0, 0]<br/>class = Eley Super Game>] ;
3 -> 9 ;
10 [label=<gini = 0.0<br/>samples = 3<br/>value = [0, 0, 0, 25, 0, 0, 0]<br/>class = Holland &amp; Holland Super Twelve>] ;
2 -> 10 ;
11 [label=<gini = 0.0<br/>samples = 4<br/>value = [25, 0, 0, 0, 0, 0, 0]<br/>class = Eley Hymax>] ;
1 -> 11 ;
12 [label=<gini = 0.0<br/>samples = 3<br/>value = [0, 0, 0, 0, 25, 0, 0]<br/>class = Remington RXP>] ;
0 -> 12 [labeldistance=2.5, labelangle=-45, headlabel="False"] ;
}
