digraph Tree {
node [shape=box, fontname="helvetica"] ;
edge [fontname="helvetica"] ;
0 [label=<Dibenzothiophene, 4-methyl- &le; 22441904.0<br/>gini = 0.819<br/>samples = 19<br/>value = [140, 28, 56, 224, 112, 112, 112]<br/>class = Holland &amp; Holland Super Twelve>] ;
1 [label=<2-Undecenal &le; 20493209.5<br/>gini = 0.805<br/>samples = 15<br/>value = [100, 20, 40, 0, 80, 80, 80]<br/>class = Eley Hymax>] ;
0 -> 1 [labeldistance=2.5, labelangle=45, headlabel="True"] ;
2 [label=<Dodecanal &le; 14128808.0<br/>gini = 0.764<br/>samples = 11<br/>value = [0, 15, 30, 0, 60, 60, 60]<br/>class = Remington RXP>] ;
1 -> 2 ;
3 [label=<Octadecane, 3-ethyl-5-(2-ethylbutyl)- &le; 43061418.0<br/>gini = 0.694<br/>samples = 8<br/>value = [0, 11, 22, 0, 44, 0, 44]<br/>class = Remington RXP>] ;
2 -> 3 ;
4 [label=<6-Octadecenal &le; 34868620.0<br/>gini = 0.571<br/>samples = 5<br/>value = [0, 7, 14, 0, 0, 0, 28]<br/>class = Western Double A>] ;
3 -> 4 ;
5 [label=<Tricyclo[3.1.0.0(2,4)]hex-3-ene-3-carbonitrile &le; 36335644.0<br/>gini = 0.444<br/>samples = 3<br/>value = [0, 3, 6, 0, 0, 0, 0]<br/>class = Gamebore Clear Pigeon>] ;
4 -> 5 ;
6 [label=<gini = 0.0<br/>samples = 2<br/>value = [0, 0, 4, 0, 0, 0, 0]<br/>class = Gamebore Clear Pigeon>] ;
5 -> 6 ;
7 [label=<gini = 0.0<br/>samples = 1<br/>value = [0, 1, 0, 0, 0, 0, 0]<br/>class = Eley Super Game>] ;
5 -> 7 ;
8 [label=<gini = 0.0<br/>samples = 2<br/>value = [0, 0, 0, 0, 0, 0, 16]<br/>class = Western Double A>] ;
4 -> 8 ;
9 [label=<gini = 0.0<br/>samples = 3<br/>value = [0, 0, 0, 0, 16, 0, 0]<br/>class = Remington RXP>] ;
3 -> 9 ;
10 [label=<gini = 0.0<br/>samples = 3<br/>value = [0, 0, 0, 0, 0, 16, 0]<br/>class = Ward Thompson Classic>] ;
2 -> 10 ;
11 [label=<gini = 0.0<br/>samples = 4<br/>value = [25, 0, 0, 0, 0, 0, 0]<br/>class = Eley Hymax>] ;
1 -> 11 ;
12 [label=<gini = 0.0<br/>samples = 4<br/>value = [0, 0, 0, 64, 0, 0, 0]<br/>class = Holland &amp; Holland Super Twelve>] ;
0 -> 12 [labeldistance=2.5, labelangle=-45, headlabel="False"] ;
}
