digraph Tree {
node [shape=box, fontname="helvetica"] ;
edge [fontname="helvetica"] ;
0 [label=<Butanedioic acid, dimethyl ester &le; 1855423.5<br/>gini = 0.811<br/>samples = 18<br/>value = [112, 112, 112, 28, 84, 252, 84]<br/>class = Ward Thompson Classic>] ;
1 [label=<Heptadecane, 2,3-dimethyl- &le; 60978508.0<br/>gini = 0.814<br/>samples = 14<br/>value = [76, 76, 76, 19, 57, 0, 57]<br/>class = Eley Hymax>] ;
0 -> 1 [labeldistance=2.5, labelangle=45, headlabel="True"] ;
2 [label=<2-Undecenal &le; 7865308.5<br/>gini = 0.773<br/>samples = 11<br/>value = [0, 60, 60, 15, 45, 0, 45]<br/>class = Eley Super Game>] ;
1 -> 2 ;
3 [label=<Cyclohexane, 1,4-dimethyl-2-octadecyl- &le; 32134050.0<br/>gini = 0.711<br/>samples = 8<br/>value = [0, 0, 44, 11, 33, 0, 33]<br/>class = Gamebore Clear Pigeon>] ;
2 -> 3 ;
4 [label=<Heptadecane, 9-hexyl- &le; 3091510.75<br/>gini = 0.594<br/>samples = 6<br/>value = [0, 0, 32, 8, 24, 0, 0]<br/>class = Gamebore Clear Pigeon>] ;
3 -> 4 ;
5 [label=<gini = 0.0<br/>samples = 2<br/>value = [0, 0, 0, 0, 9, 0, 0]<br/>class = Remington RXP>] ;
4 -> 5 ;
6 [label=<Phenol &le; 83670744.0<br/>gini = 0.32<br/>samples = 4<br/>value = [0, 0, 20, 5, 0, 0, 0]<br/>class = Gamebore Clear Pigeon>] ;
4 -> 6 ;
7 [label=<gini = 0.0<br/>samples = 3<br/>value = [0, 0, 16, 0, 0, 0, 0]<br/>class = Gamebore Clear Pigeon>] ;
6 -> 7 ;
8 [label=<gini = 0.0<br/>samples = 1<br/>value = [0, 0, 0, 1, 0, 0, 0]<br/>class = Holland &amp; Holland Super Twelve>] ;
6 -> 8 ;
9 [label=<gini = 0.0<br/>samples = 2<br/>value = [0, 0, 0, 0, 0, 0, 9]<br/>class = Western Double A>] ;
3 -> 9 ;
10 [label=<gini = 0.0<br/>samples = 3<br/>value = [0, 16, 0, 0, 0, 0, 0]<br/>class = Eley Super Game>] ;
2 -> 10 ;
11 [label=<gini = 0.0<br/>samples = 3<br/>value = [16, 0, 0, 0, 0, 0, 0]<br/>class = Eley Hymax>] ;
1 -> 11 ;
12 [label=<gini = 0.0<br/>samples = 4<br/>value = [0, 0, 0, 0, 0, 81, 0]<br/>class = Ward Thompson Classic>] ;
0 -> 12 [labeldistance=2.5, labelangle=-45, headlabel="False"] ;
}
