digraph Tree {
node [shape=box, fontname="helvetica"] ;
edge [fontname="helvetica"] ;
0 [label=<4-Methyl-2-nitrophenol &le; 87820152.0<br/>gini = 0.837<br/>samples = 19<br/>value = [112, 196, 140, 112, 84, 84, 56]<br/>class = Eley Super Game>] ;
1 [label=<Furfural &le; 105763592.0<br/>gini = 0.821<br/>samples = 15<br/>value = [84, 0, 105, 84, 63, 63, 42]<br/>class = Gamebore Clear Pigeon>] ;
0 -> 1 [labeldistance=2.5, labelangle=45, headlabel="True"] ;
2 [label=<Pyrazine, methyl- &le; 11971119.0<br/>gini = 0.782<br/>samples = 12<br/>value = [0, 0, 85, 68, 51, 51, 34]<br/>class = Gamebore Clear Pigeon>] ;
1 -> 2 ;
3 [label=<Heneicosane &le; 1660140832.0<br/>gini = 0.722<br/>samples = 9<br/>value = [0, 0, 65, 0, 39, 39, 26]<br/>class = Gamebore Clear Pigeon>] ;
2 -> 3 ;
4 [label=<3-Eicosene, (E)- &le; 221676208.0<br/>gini = 0.656<br/>samples = 5<br/>value = [0, 0, 0, 0, 24, 24, 16]<br/>class = Remington RXP>] ;
3 -> 4 ;
5 [label=<2,5-Cyclohexadiene-1,4-dione, 2,5-diphenyl- &le; 339462080.0<br/>gini = 0.48<br/>samples = 4<br/>value = [0, 0, 0, 0, 15, 0, 10]<br/>class = Remington RXP>] ;
4 -> 5 ;
6 [label=<gini = 0.0<br/>samples = 2<br/>value = [0, 0, 0, 0, 0, 0, 4]<br/>class = Western Double A>] ;
5 -> 6 ;
7 [label=<gini = 0.0<br/>samples = 2<br/>value = [0, 0, 0, 0, 9, 0, 0]<br/>class = Remington RXP>] ;
5 -> 7 ;
8 [label=<gini = 0.0<br/>samples = 1<br/>value = [0, 0, 0, 0, 0, 9, 0]<br/>class = Ward Thompson Classic>] ;
4 -> 8 ;
9 [label=<gini = 0.0<br/>samples = 4<br/>value = [0, 0, 25, 0, 0, 0, 0]<br/>class = Gamebore Clear Pigeon>] ;
3 -> 9 ;
10 [label=<gini = 0.0<br/>samples = 3<br/>value = [0, 0, 0, 16, 0, 0, 0]<br/>class = Holland &amp; Holland Super Twelve>] ;
2 -> 10 ;
11 [label=<gini = 0.0<br/>samples = 3<br/>value = [16, 0, 0, 0, 0, 0, 0]<br/>class = Eley Hymax>] ;
1 -> 11 ;
12 [label=<gini = 0.0<br/>samples = 4<br/>value = [0, 49, 0, 0, 0, 0, 0]<br/>class = Eley Super Game>] ;
0 -> 12 [labeldistance=2.5, labelangle=-45, headlabel="False"] ;
}
