digraph Tree {
node [shape=box, fontname="helvetica"] ;
edge [fontname="helvetica"] ;
0 [label=<1,3-Dioxane, 5-(hexadecyloxy)-2-pentadecyl-, trans- &le; 15901894.0<br/>gini = 0.827<br/>samples = 19<br/>value = [5, 2, 2, 3, 7, 3, 6]<br/>class = Remington RXP>] ;
1 [label=<Hexadecane, 1,1-bis(dodecyloxy)- &le; 39542632.0<br/>gini = 0.793<br/>samples = 16<br/>value = [5, 2, 2, 3, 7, 3, 0]<br/>class = Remington RXP>] ;
0 -> 1 [labeldistance=2.5, labelangle=45, headlabel="True"] ;
2 [label=<1,2-Benzisothiazole &le; 43984490.0<br/>gini = 0.773<br/>samples = 13<br/>value = [5, 2, 2, 3, 0, 3, 0]<br/>class = Eley Hymax>] ;
1 -> 2 ;
3 [label=<Tetradecane &le; 13038270.0<br/>gini = 0.74<br/>samples = 10<br/>value = [0, 2, 2, 3, 0, 3, 0]<br/>class = Holland &amp; Holland Super Twelve>] ;
2 -> 3 ;
4 [label=<Diphenylamine &le; 2019953024.0<br/>gini = 0.653<br/>samples = 7<br/>value = [0, 2, 2, 3, 0, 0, 0]<br/>class = Holland &amp; Holland Super Twelve>] ;
3 -> 4 ;
5 [label=<Heptanal &le; 71387768.0<br/>gini = 0.5<br/>samples = 4<br/>value = [0, 2, 2, 0, 0, 0, 0]<br/>class = Eley Super Game>] ;
4 -> 5 ;
6 [label=<gini = 0.0<br/>samples = 2<br/>value = [0, 0, 2, 0, 0, 0, 0]<br/>class = Gamebore Clear Pigeon>] ;
5 -> 6 ;
7 [label=<gini = 0.0<br/>samples = 2<br/>value = [0, 2, 0, 0, 0, 0, 0]<br/>class = Eley Super Game>] ;
5 -> 7 ;
8 [label=<gini = 0.0<br/>samples = 3<br/>value = [0, 0, 0, 3, 0, 0, 0]<br/>class = Holland &amp; Holland Super Twelve>] ;
4 -> 8 ;
9 [label=<gini = 0.0<br/>samples = 3<br/>value = [0, 0, 0, 0, 0, 3, 0]<br/>class = Ward Thompson Classic>] ;
3 -> 9 ;
10 [label=<gini = 0.0<br/>samples = 3<br/>value = [5, 0, 0, 0, 0, 0, 0]<br/>class = Eley Hymax>] ;
2 -> 10 ;
11 [label=<gini = 0.0<br/>samples = 3<br/>value = [0, 0, 0, 0, 7, 0, 0]<br/>class = Remington RXP>] ;
1 -> 11 ;
12 [label=<gini = 0.0<br/>samples = 3<br/>value = [0, 0, 0, 0, 0, 0, 6]<br/>class = Western Double A>] ;
0 -> 12 [labeldistance=2.5, labelangle=-45, headlabel="False"] ;
}
