digraph Tree {
node [shape=box, fontname="helvetica"] ;
edge [fontname="helvetica"] ;
0 [label=<Benzaldehyde, 3-methyl- &le; 17981578.0<br/>gini = 0.809<br/>samples = 18<br/>value = [168, 56, 224, 140, 28, 112, 56]<br/>class = Gamebore Clear Pigeon>] ;
1 [label=<Phenol, 4-ethyl- &le; 20895230.0<br/>gini = 0.764<br/>samples = 15<br/>value = [0, 44, 176, 110, 22, 88, 44]<br/>class = Gamebore Clear Pigeon>] ;
0 -> 1 [labeldistance=2.5, labelangle=45, headlabel="True"] ;
2 [label=<Nonadecane, 3-methyl- &le; 59248152.0<br/>gini = 0.692<br/>samples = 12<br/>value = [0, 34, 136, 0, 17, 68, 34]<br/>class = Gamebore Clear Pigeon>] ;
1 -> 2 ;
3 [label=<Butanedioic acid, dimethyl ester &le; 1855423.5<br/>gini = 0.691<br/>samples = 9<br/>value = [0, 18, 0, 0, 9, 36, 18]<br/>class = Ward Thompson Classic>] ;
2 -> 3 ;
4 [label=<Hydroxylamine, O-decyl- &le; 16122980.0<br/>gini = 0.64<br/>samples = 5<br/>value = [0, 10, 0, 0, 5, 0, 10]<br/>class = Eley Super Game>] ;
3 -> 4 ;
5 [label=<Propanal, 2-methyl-3-phenyl- &le; 8009728.0<br/>gini = 0.444<br/>samples = 3<br/>value = [0, 6, 0, 0, 3, 0, 0]<br/>class = Eley Super Game>] ;
4 -> 5 ;
6 [label=<gini = 0.0<br/>samples = 1<br/>value = [0, 0, 0, 0, 1, 0, 0]<br/>class = Remington RXP>] ;
5 -> 6 ;
7 [label=<gini = 0.0<br/>samples = 2<br/>value = [0, 4, 0, 0, 0, 0, 0]<br/>class = Eley Super Game>] ;
5 -> 7 ;
8 [label=<gini = 0.0<br/>samples = 2<br/>value = [0, 0, 0, 0, 0, 0, 4]<br/>class = Western Double A>] ;
4 -> 8 ;
9 [label=<gini = 0.0<br/>samples = 4<br/>value = [0, 0, 0, 0, 0, 16, 0]<br/>class = Ward Thompson Classic>] ;
3 -> 9 ;
10 [label=<gini = 0.0<br/>samples = 3<br/>value = [0, 0, 64, 0, 0, 0, 0]<br/>class = Gamebore Clear Pigeon>] ;
2 -> 10 ;
11 [label=<gini = 0.0<br/>samples = 3<br/>value = [0, 0, 0, 25, 0, 0, 0]<br/>class = Holland &amp; Holland Super Twelve>] ;
1 -> 11 ;
12 [label=<gini = 0.0<br/>samples = 3<br/>value = [36, 0, 0, 0, 0, 0, 0]<br/>class = Eley Hymax>] ;
0 -> 12 [labeldistance=2.5, labelangle=-45, headlabel="False"] ;
}
