digraph Tree {
node [shape=box, fontname="helvetica"] ;
edge [fontname="helvetica"] ;
0 [label=<Phenol, 4-methyl- &le; 326257312.0<br/>gini = 0.811<br/>samples = 15<br/>value = [1, 6, 4, 6, 3, 1, 7]<br/>class = Western Double A>] ;
1 [label=<1H-Imidazole, 2-ethyl-4,5-dihydro- &le; 23351056.0<br/>gini = 0.769<br/>samples = 14<br/>value = [1, 6, 4, 0, 3, 1, 7]<br/>class = Western Double A>] ;
0 -> 1 [labeldistance=2.5, labelangle=45, headlabel="True"] ;
2 [label=<Carbamoyl chloride, phenyl- &le; 3554204.5<br/>gini = 0.703<br/>samples = 11<br/>value = [1, 0, 4, 0, 3, 1, 7]<br/>class = Western Double A>] ;
1 -> 2 ;
3 [label=<2,5-Cyclohexadiene-1,4-dione, 2,6-bis(1,1-dimethylethyl)- &le; 15436241.0<br/>gini = 0.594<br/>samples = 6<br/>value = [0, 0, 4, 0, 3, 1, 0]<br/>class = Gamebore Clear Pigeon>] ;
2 -> 3 ;
4 [label=<gini = 0.0<br/>samples = 3<br/>value = [0, 0, 4, 0, 0, 0, 0]<br/>class = Gamebore Clear Pigeon>] ;
3 -> 4 ;
5 [label=<Nitric acid, hexyl ester &le; 15397818.0<br/>gini = 0.375<br/>samples = 3<br/>value = [0, 0, 0, 0, 3, 1, 0]<br/>class = Remington RXP>] ;
3 -> 5 ;
6 [label=<gini = 0.0<br/>samples = 2<br/>value = [0, 0, 0, 0, 3, 0, 0]<br/>class = Remington RXP>] ;
5 -> 6 ;
7 [label=<gini = 0.0<br/>samples = 1<br/>value = [0, 0, 0, 0, 0, 1, 0]<br/>class = Ward Thompson Classic>] ;
5 -> 7 ;
8 [label=<2,5-Cyclohexadiene-1,4-dione, 2,5-dimethyl- &le; 66826116.0<br/>gini = 0.219<br/>samples = 5<br/>value = [1, 0, 0, 0, 0, 0, 7]<br/>class = Western Double A>] ;
2 -> 8 ;
9 [label=<gini = 0.0<br/>samples = 4<br/>value = [0, 0, 0, 0, 0, 0, 7]<br/>class = Western Double A>] ;
8 -> 9 ;
10 [label=<gini = 0.0<br/>samples = 1<br/>value = [1, 0, 0, 0, 0, 0, 0]<br/>class = Eley Hymax>] ;
8 -> 10 ;
11 [label=<gini = 0.0<br/>samples = 3<br/>value = [0, 6, 0, 0, 0, 0, 0]<br/>class = Eley Super Game>] ;
1 -> 11 ;
12 [label=<gini = 0.0<br/>samples = 1<br/>value = [0, 0, 0, 6, 0, 0, 0]<br/>class = Holland &amp; Holland Super Twelve>] ;
0 -> 12 [labeldistance=2.5, labelangle=-45, headlabel="False"] ;
}
