digraph Tree {
node [shape=box, fontname="helvetica"] ;
edge [fontname="helvetica"] ;
0 [label=<3-Methylbenzyl alcohol &le; 9797073.0<br/>gini = 0.829<br/>samples = 18<br/>value = [5, 2, 2, 6, 5, 6, 2]<br/>class = Holland &amp; Holland Super Twelve>] ;
1 [label=<2-Decenal, (Z)- &le; 31764885.0<br/>gini = 0.798<br/>samples = 14<br/>value = [5, 2, 2, 0, 5, 6, 2]<br/>class = Ward Thompson Classic>] ;
0 -> 1 [labeldistance=2.5, labelangle=45, headlabel="True"] ;
2 [label=<1-Hexadecanol, 2-methyl- &le; 37078482.0<br/>gini = 0.747<br/>samples = 11<br/>value = [0, 2, 2, 0, 5, 6, 2]<br/>class = Ward Thompson Classic>] ;
1 -> 2 ;
3 [label=<Eicosane, 3-methyl- &le; 26096754.0<br/>gini = 0.694<br/>samples = 8<br/>value = [0, 2, 2, 0, 5, 0, 2]<br/>class = Remington RXP>] ;
2 -> 3 ;
4 [label=<Bicyclohexyl, 4-phenyl- &le; 38634340.0<br/>gini = 0.667<br/>samples = 5<br/>value = [0, 2, 2, 0, 0, 0, 2]<br/>class = Eley Super Game>] ;
3 -> 4 ;
5 [label=<Hexadecane, 1,1-bis(dodecyloxy)- &le; 48859036.0<br/>gini = 0.5<br/>samples = 3<br/>value = [0, 0, 2, 0, 0, 0, 2]<br/>class = Gamebore Clear Pigeon>] ;
4 -> 5 ;
6 [label=<gini = 0.0<br/>samples = 2<br/>value = [0, 0, 2, 0, 0, 0, 0]<br/>class = Gamebore Clear Pigeon>] ;
5 -> 6 ;
7 [label=<gini = 0.0<br/>samples = 1<br/>value = [0, 0, 0, 0, 0, 0, 2]<br/>class = Western Double A>] ;
5 -> 7 ;
8 [label=<gini = 0.0<br/>samples = 2<br/>value = [0, 2, 0, 0, 0, 0, 0]<br/>class = Eley Super Game>] ;
4 -> 8 ;
9 [label=<gini = 0.0<br/>samples = 3<br/>value = [0, 0, 0, 0, 5, 0, 0]<br/>class = Remington RXP>] ;
3 -> 9 ;
10 [label=<gini = 0.0<br/>samples = 3<br/>value = [0, 0, 0, 0, 0, 6, 0]<br/>class = Ward Thompson Classic>] ;
2 -> 10 ;
11 [label=<gini = 0.0<br/>samples = 3<br/>value = [5, 0, 0, 0, 0, 0, 0]<br/>class = Eley Hymax>] ;
1 -> 11 ;
12 [label=<gini = 0.0<br/>samples = 4<br/>value = [0, 0, 0, 6, 0, 0, 0]<br/>class = Holland &amp; Holland Super Twelve>] ;
0 -> 12 [labeldistance=2.5, labelangle=-45, headlabel="False"] ;
}
