digraph Tree {
node [shape=box, fontname="helvetica"] ;
edge [fontname="helvetica"] ;
0 [label=<Ethanol, 2-(9-octadecenyloxy)-, (Z)- &le; 9905311.0<br/>gini = 0.832<br/>samples = 18<br/>value = [56, 56, 112, 84, 140, 196, 140]<br/>class = Ward Thompson Classic>] ;
1 [label=<Dibutyl phthalate &le; 177637904.0<br/>gini = 0.812<br/>samples = 15<br/>value = [42, 42, 84, 63, 105, 0, 105]<br/>class = Remington RXP>] ;
0 -> 1 [labeldistance=2.5, labelangle=45, headlabel="True"] ;
2 [label=<Eicosane, 3-methyl- &le; 26096754.0<br/>gini = 0.773<br/>samples = 12<br/>value = [32, 32, 64, 48, 80, 0, 0]<br/>class = Remington RXP>] ;
1 -> 2 ;
3 [label=<2,4-DNT &le; 12366591.0<br/>gini = 0.727<br/>samples = 8<br/>value = [22, 22, 44, 33, 0, 0, 0]<br/>class = Gamebore Clear Pigeon>] ;
2 -> 3 ;
4 [label=<gini = 0.0<br/>samples = 3<br/>value = [0, 0, 16, 0, 0, 0, 0]<br/>class = Gamebore Clear Pigeon>] ;
3 -> 4 ;
5 [label=<1(3H)-Isobenzofuranone &le; 24319862.0<br/>gini = 0.653<br/>samples = 5<br/>value = [14, 14, 0, 21, 0, 0, 0]<br/>class = Holland &amp; Holland Super Twelve>] ;
3 -> 5 ;
6 [label=<1,4-Butanediol, dinitrate &le; 1507237312.0<br/>gini = 0.5<br/>samples = 3<br/>value = [8, 8, 0, 0, 0, 0, 0]<br/>class = Eley Hymax>] ;
5 -> 6 ;
7 [label=<gini = 0.0<br/>samples = 2<br/>value = [4, 0, 0, 0, 0, 0, 0]<br/>class = Eley Hymax>] ;
6 -> 7 ;
8 [label=<gini = 0.0<br/>samples = 1<br/>value = [0, 4, 0, 0, 0, 0, 0]<br/>class = Eley Super Game>] ;
6 -> 8 ;
9 [label=<gini = 0.0<br/>samples = 2<br/>value = [0, 0, 0, 9, 0, 0, 0]<br/>class = Holland &amp; Holland Super Twelve>] ;
5 -> 9 ;
10 [label=<gini = 0.0<br/>samples = 4<br/>value = [0, 0, 0, 0, 25, 0, 0]<br/>class = Remington RXP>] ;
2 -> 10 ;
11 [label=<gini = 0.0<br/>samples = 3<br/>value = [0, 0, 0, 0, 0, 0, 25]<br/>class = Western Double A>] ;
1 -> 11 ;
12 [label=<gini = 0.0<br/>samples = 3<br/>value = [0, 0, 0, 0, 0, 49, 0]<br/>class = Ward Thompson Classic>] ;
0 -> 12 [labeldistance=2.5, labelangle=-45, headlabel="False"] ;
}
