digraph Tree {
node [shape=box, fontname="helvetica"] ;
edge [fontname="helvetica"] ;
0 [label=<2,4-DNT &le; 12366591.0<br/>gini = 0.842<br/>samples = 15<br/>value = [5, 4, 6, 3, 5, 3, 2]<br/>class = Gamebore Clear Pigeon>] ;
1 [label=<gini = 0.0<br/>samples = 3<br/>value = [0, 0, 6, 0, 0, 0, 0]<br/>class = Gamebore Clear Pigeon>] ;
0 -> 1 [labeldistance=2.5, labelangle=45, headlabel="True"] ;
2 [label=<1,3-Dioxolane-2-heptanenitrile, α-methyl-δ-oxo-2-phenyl- &le; 18501490.0<br/>gini = 0.818<br/>samples = 12<br/>value = [5, 4, 0, 3, 5, 3, 2]<br/>class = Eley Hymax>] ;
0 -> 2 [labeldistance=2.5, labelangle=-45, headlabel="False"] ;
3 [label=<1-Hexadecanol, 2-methyl- &le; 149712256.0<br/>gini = 0.782<br/>samples = 9<br/>value = [5, 4, 0, 3, 0, 3, 2]<br/>class = Eley Hymax>] ;
2 -> 3 ;
4 [label=<Benzene, 1,2,4-trimethyl- &le; 35555388.0<br/>gini = 0.736<br/>samples = 7<br/>value = [0, 4, 0, 3, 0, 3, 2]<br/>class = Eley Super Game>] ;
3 -> 4 ;
5 [label=<3-Methylbenzyl alcohol &le; 11855865.0<br/>gini = 0.656<br/>samples = 5<br/>value = [0, 0, 0, 3, 0, 3, 2]<br/>class = Holland &amp; Holland Super Twelve>] ;
4 -> 5 ;
6 [label=<1,3-Dioxane, 5-(hexadecyloxy)-2-pentadecyl-, trans- &le; 29560770.0<br/>gini = 0.48<br/>samples = 3<br/>value = [0, 0, 0, 0, 0, 3, 2]<br/>class = Ward Thompson Classic>] ;
5 -> 6 ;
7 [label=<gini = 0.0<br/>samples = 2<br/>value = [0, 0, 0, 0, 0, 3, 0]<br/>class = Ward Thompson Classic>] ;
6 -> 7 ;
8 [label=<gini = 0.0<br/>samples = 1<br/>value = [0, 0, 0, 0, 0, 0, 2]<br/>class = Western Double A>] ;
6 -> 8 ;
9 [label=<gini = 0.0<br/>samples = 2<br/>value = [0, 0, 0, 3, 0, 0, 0]<br/>class = Holland &amp; Holland Super Twelve>] ;
5 -> 9 ;
10 [label=<gini = 0.0<br/>samples = 2<br/>value = [0, 4, 0, 0, 0, 0, 0]<br/>class = Eley Super Game>] ;
4 -> 10 ;
11 [label=<gini = 0.0<br/>samples = 2<br/>value = [5, 0, 0, 0, 0, 0, 0]<br/>class = Eley Hymax>] ;
3 -> 11 ;
12 [label=<gini = 0.0<br/>samples = 3<br/>value = [0, 0, 0, 0, 5, 0, 0]<br/>class = Remington RXP>] ;
2 -> 12 ;
}
