digraph Tree {
node [shape=box, fontname="helvetica"] ;
edge [fontname="helvetica"] ;
0 [label=<Pentadecane, 2,6,10-trimethyl- &le; 23123406.0<br/>gini = 0.832<br/>samples = 19<br/>value = [196, 84, 140, 140, 112, 56, 56]<br/>class = Eley Hymax>] ;
1 [label=<Nonadecane, 3-methyl- &le; 50746356.0<br/>gini = 0.812<br/>samples = 15<br/>value = [0, 63, 105, 105, 84, 42, 42]<br/>class = Gamebore Clear Pigeon>] ;
0 -> 1 [labeldistance=2.5, labelangle=45, headlabel="True"] ;
2 [label=<Phenanthrene &le; 24088728.0<br/>gini = 0.773<br/>samples = 11<br/>value = [0, 48, 0, 80, 64, 32, 32]<br/>class = Holland &amp; Holland Super Twelve>] ;
1 -> 2 ;
3 [label=<Eicosane, 3-methyl- &le; 64197436.0<br/>gini = 0.727<br/>samples = 8<br/>value = [0, 33, 0, 0, 44, 22, 22]<br/>class = Remington RXP>] ;
2 -> 3 ;
4 [label=<Propanal, 2-methyl-3-phenyl- &le; 8009728.0<br/>gini = 0.653<br/>samples = 5<br/>value = [0, 21, 0, 0, 0, 14, 14]<br/>class = Eley Super Game>] ;
3 -> 4 ;
5 [label=<2-Cyclopentene-1,4-dione &le; 17537624.0<br/>gini = 0.5<br/>samples = 3<br/>value = [0, 0, 0, 0, 0, 8, 8]<br/>class = Ward Thompson Classic>] ;
4 -> 5 ;
6 [label=<gini = 0.0<br/>samples = 2<br/>value = [0, 0, 0, 0, 0, 4, 0]<br/>class = Ward Thompson Classic>] ;
5 -> 6 ;
7 [label=<gini = 0.0<br/>samples = 1<br/>value = [0, 0, 0, 0, 0, 0, 4]<br/>class = Western Double A>] ;
5 -> 7 ;
8 [label=<gini = 0.0<br/>samples = 2<br/>value = [0, 9, 0, 0, 0, 0, 0]<br/>class = Eley Super Game>] ;
4 -> 8 ;
9 [label=<gini = 0.0<br/>samples = 3<br/>value = [0, 0, 0, 0, 16, 0, 0]<br/>class = Remington RXP>] ;
3 -> 9 ;
10 [label=<gini = 0.0<br/>samples = 3<br/>value = [0, 0, 0, 25, 0, 0, 0]<br/>class = Holland &amp; Holland Super Twelve>] ;
2 -> 10 ;
11 [label=<gini = 0.0<br/>samples = 4<br/>value = [0, 0, 25, 0, 0, 0, 0]<br/>class = Gamebore Clear Pigeon>] ;
1 -> 11 ;
12 [label=<gini = 0.0<br/>samples = 4<br/>value = [49, 0, 0, 0, 0, 0, 0]<br/>class = Eley Hymax>] ;
0 -> 12 [labeldistance=2.5, labelangle=-45, headlabel="False"] ;
}
