digraph Tree {
node [shape=box, fontname="helvetica"] ;
edge [fontname="helvetica"] ;
0 [label=<2(5H)-Furanone &le; 258467948.0<br/>gini = 0.776<br/>samples = 16<br/>value = [84, 84, 112, 308, 112, 56, 28]<br/>class = Holland &amp; Holland Super Twelve>] ;
1 [label=<Octadecane, 3-ethyl-5-(2-ethylbutyl)- &le; 43753760.0<br/>gini = 0.81<br/>samples = 13<br/>value = [51, 51, 68, 0, 68, 34, 17]<br/>class = Gamebore Clear Pigeon>] ;
0 -> 1 [labeldistance=2.5, labelangle=45, headlabel="True"] ;
2 [label=<Carbamoyl chloride, phenyl- &le; 3554204.5<br/>gini = 0.769<br/>samples = 10<br/>value = [39, 39, 52, 0, 0, 26, 13]<br/>class = Gamebore Clear Pigeon>] ;
1 -> 2 ;
3 [label=<2,4-DNT &le; 2297938176.0<br/>gini = 0.444<br/>samples = 4<br/>value = [0, 0, 24, 0, 0, 12, 0]<br/>class = Gamebore Clear Pigeon>] ;
2 -> 3 ;
4 [label=<gini = 0.0<br/>samples = 2<br/>value = [0, 0, 16, 0, 0, 0, 0]<br/>class = Gamebore Clear Pigeon>] ;
3 -> 4 ;
5 [label=<gini = 0.0<br/>samples = 2<br/>value = [0, 0, 0, 0, 0, 4, 0]<br/>class = Ward Thompson Classic>] ;
3 -> 5 ;
6 [label=<2,6-DNT &le; 2321018240.0<br/>gini = 0.612<br/>samples = 6<br/>value = [21, 21, 0, 0, 0, 0, 7]<br/>class = Eley Hymax>] ;
2 -> 6 ;
7 [label=<Nitrobenzene &le; 7935274.5<br/>gini = 0.375<br/>samples = 3<br/>value = [0, 12, 0, 0, 0, 0, 4]<br/>class = Eley Super Game>] ;
6 -> 7 ;
8 [label=<gini = 0.0<br/>samples = 2<br/>value = [0, 9, 0, 0, 0, 0, 0]<br/>class = Eley Super Game>] ;
7 -> 8 ;
9 [label=<gini = 0.0<br/>samples = 1<br/>value = [0, 0, 0, 0, 0, 0, 1]<br/>class = Western Double A>] ;
7 -> 9 ;
10 [label=<gini = 0.0<br/>samples = 3<br/>value = [9, 0, 0, 0, 0, 0, 0]<br/>class = Eley Hymax>] ;
6 -> 10 ;
11 [label=<gini = 0.0<br/>samples = 3<br/>value = [0, 0, 0, 0, 16, 0, 0]<br/>class = Remington RXP>] ;
1 -> 11 ;
12 [label=<gini = 0.0<br/>samples = 3<br/>value = [0, 0, 0, 121, 0, 0, 0]<br/>class = Holland &amp; Holland Super Twelve>] ;
0 -> 12 [labeldistance=2.5, labelangle=-45, headlabel="False"] ;
}
